~o
<STREAMINFO> 1 39
<VECSIZE> 39<NULLD><MFCC_D_A_0><DIAGC>
~h "id0"
<BEGINHMM>
<NUMSTATES> 10
<STATE> 2
<MEAN> 39
 -6.205941e+00 -9.193918e-01 -7.345847e-01 5.095774e-01 -1.628269e+00 1.603477e-02 -7.813134e-01 6.419795e-01 1.368612e+00 -1.155949e-01 -3.723987e-01 7.460796e-01 5.655672e+00 -1.948441e+00 -6.244088e-01 -3.389435e-01 1.562531e-01 -9.150535e-01 -1.157238e-01 -3.162495e-01 3.459764e-02 3.998560e-01 -2.888961e-01 -1.423243e-01 4.175996e-01 2.287097e+00 -6.455617e-02 -1.254420e-01 -3.979050e-02 -2.324372e-02 -1.872692e-01 -5.431736e-02 -7.771195e-02 -8.694653e-02 4.971803e-03 -1.061785e-01 -1.732599e-02 3.033782e-02 3.288702e-01
<VARIANCE> 39
 8.610254e+01 8.676157e+00 4.792022e+00 8.983526e-01 1.628929e+01 1.909399e+00 1.084382e+01 4.191057e+00 2.070633e+01 2.850521e+00 1.394786e+00 1.446063e+01 8.055733e+01 6.469289e+00 1.636575e+00 3.890644e-01 1.847849e-01 2.209767e+00 3.054703e-01 1.192170e+00 4.728105e-01 2.260175e+00 5.736021e-01 1.061978e-01 1.371868e+00 7.050933e+00 1.384188e+00 1.997320e-01 5.321293e-02 3.605350e-02 2.490632e-01 3.535116e-02 1.340707e-01 1.057120e-01 2.939963e-01 6.837014e-02 1.284509e-02 3.142128e-01 8.326201e-01
<GCONST> 7.139189e+01
<STATE> 3
<MEAN> 39
 -2.246803e+01 -9.738490e+00 -8.443227e+00 8.645341e-01 -1.324021e+01 -7.563301e+00 -2.838736e+00 -5.348521e+00 3.661368e+00 -2.140954e+00 -4.986364e-01 -2.376885e-01 4.906273e+01 -1.105552e-02 -3.708584e-03 -1.255560e-01 -8.271588e-02 -1.263391e-01 -3.353746e-01 6.687201e-02 -1.425942e-01 -5.098180e-02 -2.122925e-02 1.461802e-01 -1.024128e-01 7.252310e-01 2.644697e-02 6.326926e-02 2.055112e-02 2.133142e-02 8.657342e-02 2.026746e-02 3.043479e-02 2.944284e-02 -3.160603e-03 1.559688e-02 -2.281059e-03 1.120702e-03 -6.983792e-02
<VARIANCE> 39
 6.266906e+00 2.267911e+01 1.515547e+01 1.993308e+01 3.050502e+01 4.552455e+01 3.290108e+01 1.991008e+01 7.149811e+01 1.593396e+01 2.404279e+01 2.608733e+01 7.914345e+01 3.290085e-01 9.645361e-01 8.877858e-01 1.783359e+00 3.088603e+00 2.266042e+00 2.071199e+00 2.074173e+00 2.060997e+00 1.291944e+00 1.874988e+00 2.433110e+00 9.962670e-01 7.287658e-02 1.309805e-01 1.676119e-01 3.587255e-01 6.525140e-01 3.924494e-01 3.667106e-01 3.787980e-01 3.088964e-01 2.079480e-01 3.336810e-01 4.546633e-01 8.829987e-02
<GCONST> 1.012675e+02
<STATE> 4
<MEAN> 39
 -1.826307e+01 -1.606428e+00 -9.785682e+00 -3.803748e+00 -9.834325e+00 -8.808829e+00 4.749218e-01 -6.574450e+00 -1.118487e+00 -4.274273e+00 4.095584e-01 -2.525136e+00 6.714831e+01 3.433525e-01 3.435583e-01 -1.234342e-01 -1.103460e+00 6.593076e-01 2.575943e-01 3.484000e-01 -5.722628e-01 -1.172868e-02 -1.310997e-01 -4.448137e-01 -4.802778e-01 2.037286e+00 -1.767067e-02 -6.559095e-02 1.425493e-03 -2.276205e-01 -9.061814e-02 -7.361212e-02 4.446900e-02 -3.782088e-02 1.173149e-01 -2.271828e-02 -3.192508e-02 -8.221255e-02 -8.706969e-03
<VARIANCE> 39
 2.916448e+01 3.411295e+01 3.360503e+01 6.187627e+01 5.221842e+01 2.959863e+01 4.743891e+01 4.376252e+01 5.550209e+01 3.674783e+01 2.005127e+01 2.854265e+01 1.685965e+02 4.217262e+00 4.342888e+00 4.131958e+00 8.031437e+00 5.055903e+00 3.693733e+00 3.071724e+00 6.158666e+00 5.582799e+00 2.503505e+00 1.537448e+00 2.159904e+00 8.673407e+00 7.994199e-01 8.632355e-01 7.909605e-01 1.452515e+00 9.822873e-01 8.144406e-01 6.539196e-01 1.337452e+00 1.243042e+00 4.563760e-01 2.785517e-01 4.361982e-01 1.344178e+00
<GCONST> 1.356055e+02
<STATE> 5
<MEAN> 39
 -1.565941e+01 -7.113772e-01 -1.499579e+01 -1.617826e+01 -2.678984e+00 -1.585424e+01 3.989554e+00 -1.372606e+01 2.454325e+00 -7.967978e+00 -2.899539e+00 -1.026593e+01 8.466340e+01 -4.202223e-02 1.645395e-01 -7.434456e-02 2.886983e-01 -1.706367e-02 -1.375555e-01 -8.074780e-02 1.504039e-02 -1.167625e-01 6.852935e-02 7.153258e-02 8.701602e-02 -1.476386e-01 8.132992e-03 1.826801e-02 4.230379e-02 1.738216e-01 -3.705612e-02 2.928623e-02 -4.664773e-02 -5.070114e-03 -8.219574e-02 3.378467e-02 5.478274e-02 4.506226e-02 -9.213770e-02
<VARIANCE> 39
 6.138889e+00 1.624604e+01 6.813863e+01 7.954724e+01 4.003347e+01 5.506048e+01 2.107110e+01 5.107778e+01 3.777721e+01 2.323638e+01 1.645283e+01 2.434167e+01 1.187137e+01 4.045300e-01 1.811758e+00 2.003462e+00 4.576611e+00 2.971712e+00 4.752162e+00 1.899709e+00 2.216662e+00 3.692479e+00 3.232666e+00 1.608926e+00 3.432229e+00 1.083687e+00 6.305233e-02 2.920193e-01 2.860834e-01 5.717960e-01 4.859749e-01 8.165575e-01 2.122175e-01 4.716302e-01 4.554381e-01 5.540516e-01 3.319055e-01 6.144148e-01 2.074655e-01
<GCONST> 1.114896e+02
<STATE> 6
<MEAN> 39
 -1.636791e+01 3.865742e+00 -1.051794e+01 -1.055077e+01 -5.936124e+00 -1.294416e+01 -2.335737e+00 -9.882143e+00 3.016545e+00 -5.377952e+00 -1.422209e+00 -5.193806e+00 7.789619e+01 5.122104e-03 1.185214e-01 1.258520e-01 -2.814706e-01 3.887578e-02 -2.238483e-01 -3.111960e-02 -6.319179e-02 2.732412e-01 1.931714e-02 -1.195045e-02 -9.123765e-02 -5.408702e-02 -4.255143e-03 -7.661402e-03 -3.865041e-02 -8.349463e-02 2.202586e-02 -3.938994e-03 2.516893e-03 -2.200046e-02 9.271800e-03 -2.864673e-03 -1.703118e-02 -2.216149e-02 3.473263e-02
<VARIANCE> 39
 4.195487e+01 3.358367e+01 5.587918e+01 1.073763e+02 4.931664e+01 5.713247e+01 5.227955e+01 7.269443e+01 6.259245e+01 3.161437e+01 1.702592e+01 1.884617e+01 5.359638e+01 4.183399e+00 2.469259e+00 3.427523e+00 1.128784e+01 6.081476e+00 6.080303e+00 3.396782e+00 5.507597e+00 6.187327e+00 3.275698e+00 2.366538e+00 2.335902e+00 5.838806e+00 6.990421e-01 4.125782e-01 5.581484e-01 1.528706e+00 1.130131e+00 9.461738e-01 5.360508e-01 9.316687e-01 1.139618e+00 7.007131e-01 5.036572e-01 4.354632e-01 1.101452e+00
<GCONST> 1.364950e+02
<STATE> 7
<MEAN> 39
 -1.622747e+01 5.839947e+00 -6.592637e+00 -1.806912e+01 -4.803084e+00 -1.825898e+01 -1.888376e+00 -1.497422e+01 -8.653203e-01 -5.242710e+00 -3.969190e+00 -7.166083e+00 7.297852e+01 1.434860e-01 -5.941283e-01 3.673008e-03 9.993284e-01 -1.001776e-01 6.033126e-01 -5.733699e-01 2.456370e-02 -1.384212e+00 1.733404e-01 1.022627e-01 5.204818e-01 -1.354219e+00 -7.015509e-02 -1.313916e-01 -1.009445e-01 2.128863e-01 -6.134981e-02 7.954827e-02 -1.672864e-02 7.814886e-02 1.094445e-02 1.625600e-01 1.520253e-01 2.006131e-01 -7.379886e-02
<VARIANCE> 39
 5.995861e+00 2.776349e+01 1.631092e+01 6.189903e+01 1.862130e+01 1.674990e+01 4.173666e+01 3.790047e+01 1.431711e+02 3.414010e+01 7.991545e+00 2.308933e+01 4.410823e+01 4.553980e-01 7.934501e-01 6.909204e-01 1.436505e+00 2.618951e+00 1.218691e+00 9.945887e-01 4.239613e+00 2.813952e+00 2.401368e+00 1.812386e+00 1.925295e+00 7.287856e-01 1.233851e-01 6.181091e-02 1.331098e-01 2.771428e-01 4.371777e-01 2.113141e-01 2.158695e-01 8.187779e-01 4.775718e-01 5.053016e-01 2.220429e-01 2.791391e-01 7.282587e-02
<GCONST> 9.962238e+01
<STATE> 8
<MEAN> 39
 -2.224694e+01 -7.889920e+00 -9.184074e+00 -7.785343e+00 -7.870670e+00 -6.773558e+00 -4.921790e+00 -6.748015e+00 6.212362e+00 3.840173e+00 -4.715560e-01 -6.329588e-01 6.016219e+01 -3.238184e-01 -3.113827e-01 -1.633532e-01 2.742968e-02 -1.847561e-01 1.311203e-01 5.091862e-02 2.636858e-01 5.432537e-01 2.571338e-01 9.596694e-02 1.149548e-01 -1.777672e-01 1.902048e-02 9.125192e-02 1.033674e-01 -4.182072e-02 4.921878e-02 1.239873e-02 -2.700705e-02 6.884471e-02 -5.889797e-03 -1.684974e-01 -1.117255e-01 -1.639120e-01 2.618329e-02
<VARIANCE> 39
 1.646253e+01 1.624091e+01 2.456966e+01 3.289297e+01 5.942444e+01 7.644753e+01 1.620879e+01 7.612959e+01 1.498536e+02 4.984600e+01 7.343683e+01 7.978570e+01 7.696204e+00 1.487689e+00 1.207771e+00 2.175051e+00 2.482133e+00 6.694762e+00 4.325939e+00 1.837502e+00 3.706054e+00 6.181633e+00 4.475111e+00 4.509111e+00 2.898559e+00 6.221325e-01 2.833160e-01 1.488779e-01 3.688763e-01 5.585735e-01 1.234109e+00 7.641999e-01 3.614518e-01 6.953021e-01 1.028082e+00 6.809515e-01 7.933367e-01 5.350854e-01 8.567472e-02
<GCONST> 1.222516e+02
<STATE> 9
<MEAN> 39
 -2.394085e+01 -7.535882e+00 -6.646317e+00 -1.283352e+00 -1.153713e+01 -5.915040e+00 -4.908957e+00 -6.144486e+00 3.121119e+00 -3.051059e+00 9.527929e-01 3.795063e-01 5.226218e+01 -3.385736e-02 1.056526e-02 2.326305e-01 1.782194e-01 3.424193e-02 1.928235e-01 -5.116891e-02 9.980582e-02 1.604789e-01 -4.486859e-01 -1.888472e-01 8.118814e-03 -9.641647e-02 1.772723e-02 -2.240443e-02 -3.383971e-02 2.389083e-02 1.400987e-02 -7.505047e-02 3.404214e-02 -4.405589e-02 -2.884181e-02 5.736685e-02 -1.103023e-02 9.622806e-02 3.837425e-02
<VARIANCE> 39
 6.932845e+00 1.063758e+01 2.197451e+01 2.687409e+01 1.616014e+01 2.015629e+01 2.740805e+01 2.805638e+01 4.507031e+01 1.744738e+01 1.694451e+01 3.830722e+01 2.045155e+01 2.803853e-01 1.028803e+00 8.720822e-01 1.281529e+00 1.413244e+00 1.751252e+00 2.485118e+00 2.660351e+00 1.708792e+00 1.776427e+00 1.787579e+00 2.049422e+00 2.720299e-01 4.340536e-02 1.973421e-01 1.804337e-01 1.958525e-01 2.291283e-01 3.471698e-01 5.621759e-01 3.901667e-01 3.075257e-01 3.362827e-01 2.922768e-01 3.446010e-01 2.877575e-02
<GCONST> 9.345706e+01
<TRANSP> 10
 0.000000e+00 1.000000e+00 0.000000e+00 0.000000e+00 0.000000e+00 0.000000e+00 0.000000e+00 0.000000e+00 0.000000e+00 0.000000e+00
 0.000000e+00 9.091009e-01 9.089912e-02 0.000000e+00 0.000000e+00 0.000000e+00 0.000000e+00 0.000000e+00 0.000000e+00 0.000000e+00
 0.000000e+00 0.000000e+00 9.747848e-01 2.521522e-02 0.000000e+00 0.000000e+00 0.000000e+00 0.000000e+00 0.000000e+00 0.000000e+00
 0.000000e+00 0.000000e+00 0.000000e+00 9.388070e-01 6.119306e-02 0.000000e+00 0.000000e+00 0.000000e+00 0.000000e+00 0.000000e+00
 0.000000e+00 0.000000e+00 0.000000e+00 0.000000e+00 9.607067e-01 3.929337e-02 0.000000e+00 0.000000e+00 0.000000e+00 0.000000e+00
 0.000000e+00 0.000000e+00 0.000000e+00 0.000000e+00 0.000000e+00 9.733286e-01 2.667142e-02 0.000000e+00 0.000000e+00 0.000000e+00
 0.000000e+00 0.000000e+00 0.000000e+00 0.000000e+00 0.000000e+00 0.000000e+00 9.333171e-01 6.668285e-02 0.000000e+00 0.000000e+00
 0.000000e+00 0.000000e+00 0.000000e+00 0.000000e+00 0.000000e+00 0.000000e+00 0.000000e+00 9.605951e-01 3.940484e-02 0.000000e+00
 0.000000e+00 0.000000e+00 0.000000e+00 0.000000e+00 0.000000e+00 0.000000e+00 0.000000e+00 0.000000e+00 9.610617e-01 3.893834e-02
 0.000000e+00 0.000000e+00 0.000000e+00 0.000000e+00 0.000000e+00 0.000000e+00 0.000000e+00 0.000000e+00 0.000000e+00 0.000000e+00
<ENDHMM>
