~o
<STREAMINFO> 1 39
<VECSIZE> 39<NULLD><MFCC_D_A_0><DIAGC>
~h "id00"
<BEGINHMM>
<NUMSTATES> 10
<STATE> 2
<MEAN> 39
 -6.864609e+00 -2.313989e-01 -1.089258e+00 -7.557813e-02 -1.779964e-01 1.535873e-01 -6.807649e-01 -9.232497e-01 -7.163404e-02 -6.165897e-01 -7.613082e-01 -2.147898e-01 9.175044e+00 -9.332582e-01 -4.996093e-02 -1.151388e-01 -3.912750e-03 3.360398e-02 6.911981e-02 -1.030654e-01 -1.410632e-01 1.089760e-02 -1.180097e-02 -6.480204e-02 -1.061402e-01 1.885578e+00 1.226471e-02 2.346103e-03 4.201526e-03 -3.568085e-04 -1.056253e-03 4.067390e-04 2.338919e-02 1.105155e-02 8.829500e-03 1.530169e-03 3.821553e-03 -9.458165e-03 1.014037e-01
<VARIANCE> 39
 7.487743e+01 2.103980e+00 3.861577e+00 2.110703e+00 3.201675e+00 4.158449e+00 2.338793e+00 5.178246e+00 3.583623e+00 3.452001e+00 3.797074e+00 3.005316e+00 1.507676e+02 4.199558e+00 2.706569e-01 4.199814e-01 2.691697e-01 5.099103e-01 6.965072e-01 3.123079e-01 5.864739e-01 2.940790e-01 3.797370e-01 3.350003e-01 2.938350e-01 4.614193e+00 7.899059e-01 5.441087e-02 7.274333e-02 6.740939e-02 1.101225e-01 1.452443e-01 4.768041e-02 1.125969e-01 6.376316e-02 7.831322e-02 7.729573e-02 5.447289e-02 5.470725e-01
<GCONST> 5.691724e+01
<STATE> 3
<MEAN> 39
 -1.629170e+01 -9.352565e-01 -1.472080e+00 -4.770569e-01 2.387451e-01 -3.660286e-01 1.754182e-01 -5.902207e-01 -1.234073e+00 -1.996213e+00 -1.522149e+00 -2.631080e+00 4.134766e+01 1.082900e-02 -1.832107e-02 -2.886633e-02 -5.449172e-02 -2.891082e-02 -4.405999e-02 2.138561e-02 3.345313e-02 -2.007393e-02 1.321582e-02 1.097547e-02 -4.510286e-03 1.534358e-01 2.429319e-02 2.119110e-02 -2.243571e-03 -7.025522e-03 -9.168185e-03 -1.706191e-02 -2.124338e-02 -5.698465e-03 -1.918066e-03 -5.796316e-03 -6.988071e-03 9.011560e-03 -1.394727e-02
<VARIANCE> 39
 4.071562e+00 7.443573e+00 9.099463e+00 1.067874e+01 9.233809e+00 1.350290e+01 1.332942e+01 1.330602e+01 1.327540e+01 1.521569e+01 1.273260e+01 1.364370e+01 5.385354e+00 3.796260e-01 6.367083e-01 9.065774e-01 1.127387e+00 1.157529e+00 1.357540e+00 1.339713e+00 1.619738e+00 1.424590e+00 1.683974e+00 1.462817e+00 1.767415e+00 1.938926e-01 9.102204e-02 1.328249e-01 1.914180e-01 2.417396e-01 2.517106e-01 2.908906e-01 2.721203e-01 3.494175e-01 2.796699e-01 3.506750e-01 2.879270e-01 3.767304e-01 3.738945e-02
<GCONST> 8.154582e+01
<STATE> 4
<MEAN> 39
 -4.984070e+00 3.885776e+00 -4.295845e+00 -3.515142e+00 -3.375521e+00 -4.568296e+00 -2.877469e+00 -9.071494e-02 -1.601597e+00 -3.472203e+00 -2.625554e+00 -1.586902e+00 4.864712e+01 1.146643e+00 8.528419e-01 3.047723e-01 4.595163e-01 -4.233605e-02 1.218834e-01 -3.854341e-02 -2.998254e-01 -5.387664e-01 -1.012536e+00 -5.569319e-01 -9.034150e-03 5.966625e-01 -5.972210e-01 -3.926633e-01 2.667223e-02 7.717071e-02 1.590033e-01 4.242650e-01 3.270309e-01 -2.148192e-01 -1.169156e-01 5.293848e-02 2.269177e-02 -1.079336e-01 -3.295630e-01
<VARIANCE> 39
 9.904846e+01 2.591930e+01 1.325610e+01 2.157928e+01 2.131086e+01 1.986119e+01 1.670563e+01 1.909179e+01 1.583297e+01 1.020496e+01 2.166242e+01 1.154191e+01 3.032577e+01 1.630633e+01 4.771853e+00 2.197025e+00 2.549637e+00 3.385364e+00 4.626544e+00 2.355692e+00 2.245962e+00 3.025635e+00 1.355375e+00 3.196527e+00 1.513128e+00 5.148787e+00 2.396906e+00 9.296948e-01 2.831162e-01 3.560381e-01 5.366340e-01 7.615113e-01 3.160722e-01 5.435809e-01 5.077959e-01 4.045186e-01 5.335842e-01 1.823352e-01 7.287017e-01
<GCONST> 1.177574e+02
<STATE> 5
<MEAN> 39
 -1.389631e+01 5.346224e-01 -1.374325e+00 -1.153227e+00 -1.385955e+00 -3.075089e-01 -3.147300e-01 -2.563311e+00 -2.981142e+00 -3.360857e+00 -4.005267e+00 -3.568663e+00 4.357194e+01 -3.378609e-01 -2.806355e-01 -1.235442e-01 -9.963536e-02 1.108308e-01 2.112122e-01 4.413210e-02 -5.328675e-02 6.270862e-03 4.095009e-02 -1.160440e-01 -6.285404e-02 -1.668605e-01 5.931735e-02 3.911673e-02 2.290353e-03 -3.365293e-03 -3.061647e-02 -1.229078e-01 -5.748583e-02 9.314422e-02 9.227274e-02 4.006303e-02 5.203107e-02 4.884550e-02 3.256880e-02
<VARIANCE> 39
 1.687409e+01 2.215477e+01 2.245556e+01 2.161997e+01 1.680158e+01 2.251261e+01 2.527785e+01 3.054476e+01 2.312487e+01 2.034132e+01 1.836135e+01 2.266240e+01 4.593887e+00 1.893215e+00 2.556931e+00 1.670175e+00 1.729118e+00 1.423514e+00 2.731532e+00 3.469428e+00 4.102882e+00 2.833704e+00 2.313587e+00 2.051709e+00 2.535464e+00 4.733156e-01 3.146285e-01 4.066395e-01 3.506254e-01 4.067709e-01 3.306838e-01 6.553252e-01 7.115123e-01 7.469659e-01 6.129668e-01 4.587461e-01 5.399603e-01 6.841478e-01 7.765744e-02
<GCONST> 1.085278e+02
<STATE> 6
<MEAN> 39
 -1.690419e+01 -2.285822e+00 -3.236835e+00 -2.595987e+00 -1.395698e+00 -1.398368e+00 -6.948639e-01 -8.851939e-01 -5.912864e-01 -1.444511e+00 -1.377289e+00 -1.935687e+00 4.198013e+01 -1.576516e-02 -9.368171e-03 -2.903784e-02 1.858269e-02 -4.447300e-02 -1.130038e-01 1.713618e-01 1.681544e-01 1.146195e-01 2.991062e-02 1.100491e-01 9.026723e-02 -1.301621e-02 2.545889e-02 -7.004047e-04 -2.391457e-02 1.619273e-02 1.881746e-02 2.906241e-02 4.146860e-03 2.098952e-02 -4.405873e-02 -9.621415e-02 -5.496634e-02 -2.117228e-02 1.540006e-02
<VARIANCE> 39
 1.125054e+00 2.688215e+00 4.559525e+00 5.479252e+00 9.639832e+00 9.187793e+00 1.346863e+01 1.019812e+01 1.547037e+01 1.442377e+01 1.635512e+01 1.142075e+01 4.729650e-01 1.444343e-01 3.234653e-01 5.287248e-01 5.437706e-01 1.026772e+00 1.245886e+00 1.629401e+00 1.182534e+00 2.058093e+00 2.049746e+00 2.051501e+00 1.515747e+00 5.987126e-02 3.460227e-02 7.094874e-02 1.010279e-01 1.205124e-01 2.040697e-01 2.217425e-01 3.593145e-01 2.228536e-01 3.808065e-01 4.624614e-01 4.069618e-01 2.565278e-01 1.364193e-02
<GCONST> 6.731879e+01
<STATE> 7
<MEAN> 39
 -1.531507e+01 -1.549026e+00 -3.294715e+00 -1.988886e+00 -3.655261e-01 2.104115e-01 2.049121e-01 -3.151915e-01 -6.973612e-01 -2.309798e+00 -1.120649e+00 -2.205450e+00 4.299592e+01 4.921004e-02 7.519464e-03 4.772891e-02 6.159357e-02 3.176884e-02 -6.070114e-02 -3.062591e-01 -1.199947e-01 1.809577e-02 6.623546e-02 9.097581e-02 1.643243e-02 2.529541e-02 4.485910e-02 5.022877e-02 2.724587e-02 -1.616922e-02 -4.300259e-02 -3.448841e-02 -2.462397e-02 -5.370453e-02 3.594033e-03 5.329251e-02 3.731420e-02 1.733158e-02 2.144354e-02
<VARIANCE> 39
 3.883029e+00 8.993491e+00 1.300387e+01 2.073774e+01 1.524657e+01 1.253482e+01 1.833278e+01 2.336104e+01 1.844547e+01 2.935779e+01 2.459283e+01 1.640305e+01 2.026409e+00 4.710282e-01 9.654019e-01 1.415455e+00 1.891078e+00 1.908538e+00 1.556299e+00 1.106806e+00 2.382985e+00 2.103747e+00 2.333461e+00 2.105306e+00 2.449282e+00 2.001794e-01 1.252538e-01 2.280901e-01 2.868191e-01 3.141761e-01 3.745482e-01 3.600229e-01 2.078094e-01 5.045955e-01 4.220006e-01 4.113903e-01 4.713913e-01 5.090325e-01 4.947716e-02
<GCONST> 9.261314e+01
<STATE> 8
<MEAN> 39
 -1.039968e+01 1.098500e+00 -4.391768e+00 -3.484060e+00 -2.481435e+00 -9.833409e-01 -2.594712e+00 -3.386852e+00 -1.079218e+00 -4.043004e-01 5.402789e-01 -2.521827e+00 4.598811e+01 1.253557e-01 1.709178e-01 -1.435516e-01 -3.034528e-01 -3.167159e-01 2.146486e-01 3.065914e-01 1.441889e-01 -1.720664e-01 -6.122606e-02 -1.344539e-01 -1.693472e-01 7.342756e-02 -2.139051e-01 -2.125688e-01 -6.119114e-02 -5.323427e-02 8.323864e-02 1.180342e-01 1.594695e-01 2.082321e-01 1.201478e-01 5.123046e-02 -4.567692e-02 -7.533666e-02 -1.135988e-01
<VARIANCE> 39
 3.550657e+01 2.295772e+01 1.836947e+01 2.435298e+01 2.256795e+01 3.027450e+01 1.611936e+01 2.014110e+01 2.331840e+01 3.205175e+01 2.043212e+01 2.006083e+01 1.585938e+01 6.411710e+00 3.508807e+00 2.072539e+00 2.969169e+00 2.780572e+00 3.540021e+00 2.080636e+00 2.606956e+00 2.199226e+00 3.179265e+00 3.147731e+00 2.708656e+00 2.531154e+00 1.163874e+00 6.032648e-01 3.671629e-01 5.517526e-01 5.147738e-01 6.900966e-01 4.053195e-01 4.462096e-01 4.386623e-01 6.268161e-01 7.514910e-01 6.445858e-01 4.603108e-01
<GCONST> 1.186274e+02
<STATE> 9
<MEAN> 39
 -1.526604e+01 -1.537433e+00 -2.877755e+00 -2.371988e+00 -1.862140e+00 5.812414e-01 4.272552e-01 5.464251e-01 -4.441442e-02 -1.997076e+00 -1.863754e+00 -2.689555e+00 4.287039e+01 -1.814296e-01 4.986100e-02 5.294366e-01 3.717347e-01 2.837375e-01 -1.513663e-01 -3.077057e-01 -7.115439e-02 -1.164752e-02 1.965679e-01 8.433452e-02 -8.039697e-02 -1.230546e-01 9.799543e-02 1.039122e-01 6.450955e-02 4.370011e-02 -1.091534e-02 -3.313893e-02 -1.663886e-01 -1.872649e-01 -1.554032e-01 6.486113e-02 4.637792e-02 -3.044116e-02 5.528284e-02
<VARIANCE> 39
 3.631886e+00 1.028804e+01 1.324596e+01 2.050028e+01 1.290913e+01 7.095367e+00 1.303898e+01 2.097923e+01 2.408525e+01 1.258214e+01 9.366841e+00 9.083689e+00 1.336476e+00 5.325899e-01 1.178110e+00 5.616823e-01 1.988727e+00 1.704645e+00 6.443778e-01 1.523524e+00 2.908309e+00 2.126657e+00 1.035293e+00 1.118320e+00 1.042414e+00 2.003175e-01 1.137813e-01 2.364496e-01 1.338264e-01 3.572950e-01 4.280469e-01 7.572113e-02 2.419622e-01 5.479935e-01 2.309442e-01 1.482210e-01 2.345167e-01 2.054570e-01 4.095168e-02
<GCONST> 8.033200e+01
<TRANSP> 10
 0.000000e+00 1.000000e+00 0.000000e+00 0.000000e+00 0.000000e+00 0.000000e+00 0.000000e+00 0.000000e+00 0.000000e+00 0.000000e+00
 0.000000e+00 9.433660e-01 5.663400e-02 0.000000e+00 0.000000e+00 0.000000e+00 0.000000e+00 0.000000e+00 0.000000e+00 0.000000e+00
 0.000000e+00 0.000000e+00 9.836088e-01 1.639121e-02 0.000000e+00 0.000000e+00 0.000000e+00 0.000000e+00 0.000000e+00 0.000000e+00
 0.000000e+00 0.000000e+00 0.000000e+00 8.373114e-01 1.626886e-01 0.000000e+00 0.000000e+00 0.000000e+00 0.000000e+00 0.000000e+00
 0.000000e+00 0.000000e+00 0.000000e+00 0.000000e+00 9.528184e-01 4.718164e-02 0.000000e+00 0.000000e+00 0.000000e+00 0.000000e+00
 0.000000e+00 0.000000e+00 0.000000e+00 0.000000e+00 0.000000e+00 9.684203e-01 3.157965e-02 0.000000e+00 0.000000e+00 0.000000e+00
 0.000000e+00 0.000000e+00 0.000000e+00 0.000000e+00 0.000000e+00 0.000000e+00 9.680836e-01 3.191639e-02 0.000000e+00 0.000000e+00
 0.000000e+00 0.000000e+00 0.000000e+00 0.000000e+00 0.000000e+00 0.000000e+00 0.000000e+00 9.249498e-01 7.505024e-02 0.000000e+00
 0.000000e+00 0.000000e+00 0.000000e+00 0.000000e+00 0.000000e+00 0.000000e+00 0.000000e+00 0.000000e+00 9.268515e-01 7.314848e-02
 0.000000e+00 0.000000e+00 0.000000e+00 0.000000e+00 0.000000e+00 0.000000e+00 0.000000e+00 0.000000e+00 0.000000e+00 0.000000e+00
<ENDHMM>
